{"weights": {"Gryffindor": {"w": [[4.69131887959147], [-6.059070374278718], [-4.675963045704178], [2.2542874388194596], [-3.009673977458077], [5.079181365537154], [-9.372970378404103], [-9.546590635288121], [-5.746545171017565], [9.23197252030659]], "b": -7.509093729621776}, "Hufflepuff": {"w": [[7.586762542634656], [6.2635353589104845], [-7.6047762371950585], [3.878900593296885], [-4.911013314906529], [-7.73893081639589], [3.9676662000489893], [3.843695331752281], [-0.9662797861101834], [-2.5920610888597957]], "b": -6.265002551984838}, "Ravenclaw": {"w": [[-7.224416171981386], [5.363344627074558], [7.240635287618738], [3.1970932057914574], [10.507838422496821], [6.9822913524192645], [3.192540133292486], [3.3091030806606656], [10.23377133324324], [-1.9454253806951773]], "b": -7.1064332081037564}, "Slytherin": {"w": [[-5.05025284627577], [-5.577545444934431], [5.045299200043142], [-9.318817500722261], [-2.5850423740784145], [-4.319289936420987], [2.2237937880544414], [2.394924774451878], [-3.5166482578554707], [-4.6961486468037315]], "b": -7.195363128875546}}}