{"weights": {"Gryffindor": {"w": [[0.9355777921207871], [-1.2089765006703106], [-0.9359246871552921], [0.44930628234655207], [-0.605843150648351], [1.0213888781068503], [-1.8705993529436118], [-1.9111053011983854], [-1.14855573828489], [1.8446216191581084]], "b": -7.426771223157894}, "Hufflepuff": {"w": [[1.5173022474060183], [1.2482348743016638], [-1.5208618301609567], [0.775424267221923], [-0.9830824964572464], [-1.5510624011454506], [0.7964675530680103], [0.7705250052490373], [-0.1966454625990459], [-0.5184461737826972]], "b": -6.434954639809227}, "Ravenclaw": {"w": [[-1.4416881873608474], [1.0774534540498018], [1.4460711629650345], [0.6391333862391], [2.097343946442175], [1.3964012830786268], [0.6396585786620689], [0.6657883438405181], [2.047256968282976], [-0.3889795469489182]], "b": -7.05867633526945}, "Slytherin": {"w": [[-1.0060516255450769], [-1.1105852013691724], [1.0122540020467274], [-1.8626405054857036], [-0.5176399220727529], [-0.8628971879646189], [0.44426638007510294], [0.4840094368137178], [-0.7016855822867651], [-0.9416405314638638]], "b": -7.230032195006228}}}